{"learner":{"attributes":{"scikit_learn":"{\"_estimator_type\": \"classifier\"}"},"feature_names":["cache-references","cache-misses","cycles","instructions","branches","branch-misses","L1-dcache-loads","L1-dcache-load-misses","LLC-loads","LLC-load-misses","dTLB-loads","dTLB-load-misses"],"feature_types":["int","int","int","int","int","int","int","int","int","int","int","int"],"gradient_booster":{"model":{"gbtree_model_param":{"num_parallel_tree":"1","num_trees":"20"},"iteration_indptr":[0,1,2,3,4,5,6,7,8,9,10,11,12,13,14,15,16,17,18,19,20],"tree_info":[0,0,0,0,0,0,0,0,0,0,0,0,0,0,0,0,0,0,0,0],"trees":[{"base_weights":[-0E0,-8.959608E-1,7.431472E-1,1.8937198E0,-1.2988104E0,1.8628099E0,-1.0367454E0,3.96E-1,-4.4444445E-1,-9.090909E-2,-1.4424433E0,1.9080659E0,9.1525424E-1,-1.4383358E0,3.912088E-1,1.0909092E-1,-2.5454545E-1,9.885057E-1,-5.0666666E-1,-9.783394E-1,-1.7931035E0,1.1715976E0,1.9626343E0,-1.0476191E0,3.8E-1,-1.6566038E0,-6.2068963E-1,2.6666668E-1,-2.769231E-1,-4.3795623E-2,-1.8260871E-1,3.8471338E-1,-2.9026178E-1,-3.1852898E-1,-3.9464524E-1,3.882353E-1,-3.5675678E-1,6.666667E-2,3.93624E-1,2.2222224E-1,-2.918919E-1,1.5111111E-1,-3.5132483E-1,2.1556886E-2,-3.1181103E-1],"categories":[],"categories_nodes":[],"categories_segments":[],"categories_sizes":[],"default_left":[0,0,0,0,0,0,0,0,0,0,0,0,0,0,0,0,0,0,0,0,0,0,0,0,0,0,0,0,0,0,0,0,0,0,0,0,0,0,0,0,0,0,0,0,0],"id":0,"left_children":[1,3,5,7,9,11,13,-1,15,17,19,21,23,25,-1,-1,-1,27,29,31,33,35,37,39,-1,41,43,-1,-1,-1,-1,-1,-1,-1,-1,-1,-1,-1,-1,-1,-1,-1,-1,-1,-1],"loss_changes":[1.1998271E3,9.2062177E2,1.9649174E3,2.1759827E1,1.2383057E2,2.4197754E1,4.60728E2,0E0,4.3838387E0,3.505651E1,1.0215698E2,2.0868896E1,5.9011944E1,5.9025574E1,0E0,0E0,0E0,1.9644564E1,6.3762503E0,3.8297787E2,9.946167E0,9.9556E1,4.1279297E0,1.0956671E1,0E0,6.526245E1,4.9727222E1,0E0,0E0,0E0,0E0,0E0,0E0,0E0,0E0,0E0,0E0,0E0,0E0,0E0,0E0,0E0,0E0,0E0,0E0],"parents":[2147483647,0,0,1,1,2,2,3,3,4,4,5,5,6,6,8,8,9,9,10,10,11,11,12,12,13,13,17,17,18,18,19,19,20,20,21,21,22,22,23,23,25,25,26,26],"right_children":[2,4,6,8,10,12,14,-1,16,18,20,22,24,26,-1,-1,-1,28,30,32,34,36,38,40,-1,42,44,-1,-1,-1,-1,-1,-1,-1,-1,-1,-1,-1,-1,-1,-1,-1,-1,-1,-1],"split_conditions":[1.084385E10,1.1690538E8,6.3375654E8,1.1515918E7,1.16624584E8,6.202254E8,1.3290612E11,3.96E-1,4.0787242E8,1.938715E6,1.0913077E7,1.1220945E10,1.2107272E11,2.2384542E11,3.912088E-1,1.0909092E-1,-2.5454545E-1,1.796698E7,1.2071378E8,4.2363355E10,1.5971819E8,1.5971819E8,1.1221256E10,1.15152765E11,3.8E-1,1.1604616E11,2.7563848E10,2.6666668E-1,-2.769231E-1,-4.3795623E-2,-1.8260871E-1,3.8471338E-1,-2.9026178E-1,-3.1852898E-1,-3.9464524E-1,3.882353E-1,-3.5675678E-1,6.666667E-2,3.93624E-1,2.2222224E-1,-2.918919E-1,1.5111111E-1,-3.5132483E-1,2.1556886E-2,-3.1181103E-1],"split_indices":[6,0,1,1,10,1,2,0,3,11,1,6,2,3,0,0,0,7,0,2,0,0,10,2,0,2,4,0,0,0,0,0,0,0,0,0,0,0,0,0,0,0,0,0,0],"split_type":[0,0,0,0,0,0,0,0,0,0,0,0,0,0,0,0,0,0,0,0,0,0,0,0,0,0,0,0,0,0,0,0,0,0,0,0,0,0,0,0,0,0,0,0,0],"sum_hessian":[1.8E3,8.16E2,9.84E2,1.025E2,7.135E2,6.04E2,3.8E2,9.9E1,3.5E0,7.6E1,6.375E2,5.755E2,2.85E1,3.355E2,4.45E1,1.75E0,1.75E0,2.075E1,5.525E1,2.76E2,3.615E2,4.125E1,5.3425E2,9.5E0,1.9E1,2.64E2,7.15E1,1.85E1,2.25E0,3.325E1,2.2E1,3.825E1,2.3775E2,1.7575E2,1.8575E2,3.3E1,8.25E0,2E0,5.3225E2,1.25E0,8.25E0,1.025E1,2.5375E2,4.075E1,3.075E1],"tree_param":{"num_deleted":"0","num_feature":"12","num_nodes":"45","size_leaf_vector":"1"}},{"base_weights":[5.767897E-4,-7.3898625E-1,6.1778283E-1,1.5805094E0,-1.0700482E0,1.5539036E0,-8.543711E-1,3.3112383E-1,-3.9125794E-1,-7.6182574E-2,-1.1907011E0,1.5916963E0,7.674179E-1,-1.1848626E0,3.276007E-1,9.540064E-2,-2.2461312E-1,8.0509377E-1,-4.1100934E-1,-8.017091E-1,-1.4872307E0,9.749666E-1,1.6374276E0,-8.61712E-1,3.193503E-1,-1.3623124E0,-4.6375102E-1,2.2003368E-1,-2.4199434E-1,-1.1647196E-1,2.9404117E-2,3.2367083E-1,-2.3806672E-1,-2.1405588E-1,-3.116817E-1,3.254133E-1,-3.0218253E-1,5.7823893E-2,3.2842267E-1,1.2061244E-1,-2.7941307E-1,1.24271475E-1,-2.8896534E-1,3.3847336E-2,-2.6360014E-1],"categories":[],"categories_nodes":[],"categories_segments":[],"categories_sizes":[],"default_left":[0,0,0,0,0,0,0,0,0,0,0,0,0,0,0,0,0,0,0,0,0,0,0,0,0,0,0,0,0,0,0,0,0,0,0,0,0,0,0,0,0,0,0,0,0],"id":1,"left_children":[1,3,5,7,9,11,13,-1,15,17,19,21,23,25,-1,-1,-1,27,29,31,33,35,37,39,-1,41,43,-1,-1,-1,-1,-1,-1,-1,-1,-1,-1,-1,-1,-1,-1,-1,-1,-1,-1],"loss_changes":[7.975823E2,6.12067E2,1.3139031E3,1.5410965E1,8.33905E1,1.6094604E1,3.074293E2,0E0,3.3738852E0,2.2884672E1,7.0409546E1,1.405481E1,4.007352E1,4.1343292E1,0E0,0E0,0E0,1.4045017E1,5.4452047E0,2.5650037E2,8.750916E0,6.85645E1,2.7799072E0,8.928453E0,0E0,4.3902313E1,3.6071327E1,0E0,0E0,0E0,0E0,0E0,0E0,0E0,0E0,0E0,0E0,0E0,0E0,0E0,0E0,0E0,0E0,0E0,0E0],"parents":[2147483647,0,0,1,1,2,2,3,3,4,4,5,5,6,6,8,8,9,9,10,10,11,11,12,12,13,13,17,17,18,18,19,19,20,20,21,21,22,22,23,23,25,25,26,26],"right_children":[2,4,6,8,10,12,14,-1,16,18,20,22,24,26,-1,-1,-1,28,30,32,34,36,38,40,-1,42,44,-1,-1,-1,-1,-1,-1,-1,-1,-1,-1,-1,-1,-1,-1,-1,-1,-1,-1],"split_conditions":[1.084385E10,1.1690538E8,6.3375654E8,1.1515918E7,1.16624584E8,6.202254E8,1.3290612E11,3.3112383E-1,4.0787242E8,1.938715E6,1.0913077E7,1.1220945E10,1.2107272E11,2.2406498E11,3.276007E-1,9.540064E-2,-2.2461312E-1,1.796698E7,2.00766E6,6.7994927E10,1.2319684E8,1.5971819E8,1.1221256E10,1.1604616E11,3.193503E-1,1.1604616E11,2.7605303E10,2.2003368E-1,-2.4199434E-1,-1.1647196E-1,2.9404117E-2,3.2367083E-1,-2.3806672E-1,-2.1405588E-1,-3.116817E-1,3.254133E-1,-3.0218253E-1,5.7823893E-2,3.2842267E-1,1.2061244E-1,-2.7941307E-1,1.24271475E-1,-2.8896534E-1,3.3847336E-2,-2.6360014E-1],"split_indices":[6,0,1,1,10,1,2,0,3,11,1,6,2,3,0,0,0,7,11,3,10,0,10,2,0,2,4,0,0,0,0,0,0,0,0,0,0,0,0,0,0,0,0,0,0],"split_type":[0,0,0,0,0,0,0,0,0,0,0,0,0,0,0,0,0,0,0,0,0,0,0,0,0,0,0,0,0,0,0,0,0,0,0,0,0,0,0,0,0,0,0,0,0],"sum_hessian":[1.7453107E3,7.938672E2,9.514435E2,9.868479E1,6.9518243E2,5.815738E2,3.6986966E2,9.521803E1,3.46676E0,7.543405E1,6.1974835E2,5.5393207E2,2.7641708E1,3.270298E2,4.283989E1,1.7448037E0,1.7219563E0,2.038238E1,5.5051674E1,2.696807E2,3.5006766E2,3.9780052E1,5.1415204E2,9.311433E0,1.8330276E1,2.6173364E2,6.529613E1,1.817497E1,2.2074091E0,4.2085243E1,1.296643E1,3.687657E1,2.3280412E2,5.3384407E1,2.9668326E2,3.178709E1,7.992964E0,1.9977795E0,5.1215424E2,2.4584422E0,6.85299E0,1.0191709E1,2.5154193E2,3.796583E1,2.7330294E1],"tree_param":{"num_deleted":"0","num_feature":"12","num_nodes":"45","size_leaf_vector":"1"}},{"base_weights":[2.023151E-3,-6.3378775E-1,5.404854E-1,1.3953247E0,-9.153633E-1,1.3710741E0,-7.3237056E-1,2.9328775E-1,-3.49769E-1,-1.296116E-1,-1.0356697E0,1.4103485E0,7.3085433E-1,-1.0135709E0,2.9006916E-1,8.370803E-2,-2.018001E-1,7.5019264E-1,-3.420634E-1,-7.2139156E-1,-1.3732735E0,8.562331E-1,1.4520288E0,-7.8832436E-1,2.8582418E-1,-1.1967614E0,-4.3194473E-1,2.0917273E-1,-1.6328417E-1,-2.308319E-2,-1.3231264E-1,3.1547746E-1,-2.1432714E-1,-2.0345822E-1,-2.848794E-1,2.880815E-1,-2.674179E-1,5.021871E-2,2.913302E-1,2.0568259E-1,-2.4385376E-1,2.3432425E-1,-2.515161E-1,-1.1209737E-2,-2.6827472E-1],"categories":[],"categories_nodes":[],"categories_segments":[],"categories_sizes":[],"default_left":[0,0,0,0,0,0,0,0,0,0,0,0,0,0,0,0,0,0,0,0,0,0,0,0,0,0,0,0,0,0,0,0,0,0,0,0,0,0,0,0,0,0,0,0,0],"id":2,"left_children":[1,3,5,7,9,11,13,-1,15,17,19,21,23,25,-1,-1,-1,27,29,31,33,35,37,39,-1,41,43,-1,-1,-1,-1,-1,-1,-1,-1,-1,-1,-1,-1,-1,-1,-1,-1,-1,-1],"loss_changes":[5.574014E2,4.2783008E2,9.3298694E2,1.1852219E1,6.1897034E1,1.2391235E1,2.15524E2,0E0,2.6433353E0,1.6756308E1,5.937329E1,1.0347717E1,3.6057056E1,3.246338E1,0E0,0E0,0E0,8.952016E0,5.1222553E0,2.4061292E2,3.522522E0,5.0033432E1,2.21698E0,9.876616E0,0E0,3.529892E1,2.5804607E1,0E0,0E0,0E0,0E0,0E0,0E0,0E0,0E0,0E0,0E0,0E0,0E0,0E0,0E0,0E0,0E0,0E0,0E0],"parents":[2147483647,0,0,1,1,2,2,3,3,4,4,5,5,6,6,8,8,9,9,10,10,11,11,12,12,13,13,17,17,18,18,19,19,20,20,21,21,22,22,23,23,25,25,26,26],"right_children":[2,4,6,8,10,12,14,-1,16,18,20,22,24,26,-1,-1,-1,28,30,32,34,36,38,40,-1,42,44,-1,-1,-1,-1,-1,-1,-1,-1,-1,-1,-1,-1,-1,-1,-1,-1,-1,-1],"split_conditions":[1.084385E10,1.1690538E8,6.3375654E8,1.1515918E7,1.1821783E8,6.1652256E8,1.3290612E11,2.9328775E-1,4.0787242E8,1.929553E6,2.1468124E7,1.1220945E10,1.2107272E11,2.236038E11,2.9006916E-1,8.370803E-2,-2.018001E-1,1.796698E7,1.2071378E8,6.7994927E10,9.881834E6,1.5971819E8,1.1221256E10,1.15152765E11,2.8582418E-1,1.15152765E11,3.980167E10,2.0917273E-1,-1.6328417E-1,-2.308319E-2,-1.3231264E-1,3.1547746E-1,-2.1432714E-1,-2.0345822E-1,-2.848794E-1,2.880815E-1,-2.674179E-1,5.021871E-2,2.913302E-1,2.0568259E-1,-2.4385376E-1,2.3432425E-1,-2.515161E-1,-1.1209737E-2,-2.6827472E-1],"split_indices":[6,0,1,1,10,1,2,0,3,11,1,6,2,3,0,0,0,7,0,3,5,0,10,2,0,2,6,0,0,0,0,0,0,0,0,0,0,0,0,0,0,0,0,0,0],"split_type":[0,0,0,0,0,0,0,0,0,0,0,0,0,0,0,0,0,0,0,0,0,0,0,0,0,0,0,0,0,0,0,0,0,0,0,0,0,0,0,0,0,0,0,0,0],"sum_hessian":[1.6261135E3,7.4557214E2,8.805413E2,9.037184E1,6.552003E2,5.327947E2,3.477467E2,8.698673E1,3.3851075E0,8.72733E1,5.67927E2,5.00866E2,3.1928658E1,3.0853378E2,3.9212914E1,1.7318319E0,1.6532755E0,1.6482977E1,7.079032E1,2.9574884E2,2.7217816E2,3.6546337E1,4.6431964E2,1.0013621E1,2.1915037E1,2.3382884E2,7.470494E1,1.4145638E1,2.3373375E0,4.2209145E1,2.858118E1,3.863959E1,2.5710925E2,3.6803844E1,2.3537431E2,2.9130842E1,7.415496E0,1.9922711E0,4.623274E2,1.65408E0,8.359542E0,5.3970304E0,2.2843181E2,5.3608475E1,2.1096468E1],"tree_param":{"num_deleted":"0","num_feature":"12","num_nodes":"45","size_leaf_vector":"1"}},{"base_weights":[3.7691651E-3,-1.9957586E-1,2.7142185E-1,5.1506805E-1,-9.155112E-1,1.3202009E0,-2.3100016E-1,-1.1308808E-1,-1.0404034E0,2.745052E-1,7.6748645E-1,-9.436341E-1,2.700008E-1,7.5897264E-1,-2.73536E-1,-1.1877903E0,-3.9932612E-1,-5.7786334E-2,2.5640574E-1,-2.174069E-1,-3.977585E-2,-1.14905395E-1,1.845233E-1,1.3624977E-1,-6.9087885E-2,-1.6126843E-1,-2.430489E-1,-1.5365556E-1,2.664805E-3],"categories":[],"categories_nodes":[],"categories_segments":[],"categories_sizes":[],"default_left":[0,0,0,0,0,0,0,0,0,0,0,0,0,0,0,0,0,0,0,0,0,0,0,0,0,0,0,0,0],"id":3,"left_children":[1,3,-1,5,7,9,11,13,15,-1,17,19,-1,21,23,25,27,-1,-1,-1,-1,-1,-1,-1,-1,-1,-1,-1,-1],"loss_changes":[4.0857297E2,6.6086725E2,0E0,3.8870462E2,6.453693E1,7.9448853E0,3.803546E2,1.2522244E1,5.2262207E1,0E0,1.6229755E1,2.4615387E1,0E0,3.5723934E0,5.3890653E0,3.767212E0,1.6123978E1,0E0,0E0,0E0,0E0,0E0,0E0,0E0,0E0,0E0,0E0,0E0,0E0],"parents":[2147483647,0,0,1,1,3,3,4,4,5,5,6,6,7,7,8,8,10,10,11,11,13,13,14,14,15,15,16,16],"right_children":[2,4,-1,6,8,10,12,14,16,-1,18,20,-1,22,24,26,28,-1,-1,-1,-1,-1,-1,-1,-1,-1,-1,-1,-1],"split_conditions":[1.3290612E11,2.1468124E7,2.7142185E-1,9.131234E7,1.1821783E8,9.056044E7,4.8100127E10,1.05013624E8,1.20198275E11,2.745052E-1,4.327468E10,1.742674E6,2.700008E-1,4.480747E7,6.072844E6,9.866181E6,2.2406498E11,-5.7786334E-2,2.5640574E-1,-2.174069E-1,-3.977585E-2,-1.14905395E-1,1.845233E-1,1.3624977E-1,-6.9087885E-2,-1.6126843E-1,-2.430489E-1,-1.5365556E-1,2.664805E-3],"split_indices":[2,1,0,5,10,5,2,10,2,0,2,11,0,1,9,5,3,0,0,0,0,0,0,0,0,0,0,0,0],"split_type":[0,0,0,0,0,0,0,0,0,0,0,0,0,0,0,0,0,0,0,0,0,0,0,0,0,0,0,0,0],"sum_hessian":[1.4826831E3,1.289746E3,1.9293721E2,6.455955E2,6.441504E2,3.1013654E2,3.3545898E2,8.701177E1,5.571387E2,2.8196036E2,2.8176168E1,2.3150967E2,1.039493E2,1.2941619E1,7.407015E1,4.5229984E2,1.04838806E2,9.372252E0,1.8803915E1,1.9374506E2,3.776462E1,1.1401265E0,1.1801493E1,4.593946E0,6.9476204E1,3.2407097E1,4.1989273E2,5.489511E1,4.994369E1],"tree_param":{"num_deleted":"0","num_feature":"12","num_nodes":"29","size_leaf_vector":"1"}},{"base_weights":[5.975538E-3,-1.7582098E-1,2.5400242E-1,5.230194E-1,-7.612409E-1,-9.983651E-2,2.5468332E-1,-8.985569E-2,-8.6520326E-1,1.2213825E0,-7.784283E-1,4.9606124E-1,-2.587162E-1,2.3354982E-1,-9.074729E-1,2.5632796E-1,-9.986839E-3,-2.0217578E-1,-5.0116498E-2,1.5112714E-1,-1.6764568E-1,-4.9789683E-3,-1.2386644E-1,-2.0780681E-1,-6.6703275E-2],"categories":[],"categories_nodes":[],"categories_segments":[],"categories_sizes":[],"default_left":[0,0,0,0,0,0,0,0,0,0,0,0,0,0,0,0,0,0,0,0,0,0,0,0,0],"id":4,"left_children":[1,3,-1,5,7,9,-1,11,13,15,17,19,21,-1,23,-1,-1,-1,-1,-1,-1,-1,-1,-1,-1],"loss_changes":[3.0827673E2,4.8023468E2,0E0,2.5028961E2,4.4497955E1,2.6400314E2,0E0,8.710894E0,4.857016E1,7.7206116E0,2.3605484E1,7.47373E0,5.718044E0,0E0,4.0594086E1,0E0,0E0,0E0,0E0,0E0,0E0,0E0,0E0,0E0,0E0],"parents":[2147483647,0,0,1,1,3,3,4,4,5,5,7,7,8,8,9,9,10,10,11,11,12,12,14,14],"right_children":[2,4,-1,6,8,10,-1,12,14,16,18,20,22,-1,24,-1,-1,-1,-1,-1,-1,-1,-1,-1,-1],"split_conditions":[1.3290612E11,1.116261E7,2.5400242E-1,1.084385E10,1.1821783E8,8.792175E9,2.5468332E-1,1.938715E6,1.592413E6,9.131234E7,1.72008E6,1.796698E7,4.119509E8,2.3354982E-1,1.20198275E11,2.5632796E-1,-9.986839E-3,-2.0217578E-1,-5.0116498E-2,1.5112714E-1,-1.6764568E-1,-4.9789683E-3,-1.2386644E-1,-2.0780681E-1,-6.6703275E-2],"split_indices":[2,1,0,6,10,6,0,11,11,5,11,7,3,0,2,0,0,0,0,0,0,0,0,0,0],"split_type":[0,0,0,0,0,0,0,0,0,0,0,0,0,0,0,0,0,0,0,0,0,0,0,0,0],"sum_hessian":[1.3395436E3,1.1718644E3,1.6767921E2,5.342337E2,6.376307E2,2.9239914E2,2.4183458E2,8.5746605E1,5.5188403E2,9.89478E1,1.9345134E2,1.8749916E1,6.699669E1,1.0698832E1,5.4118524E2,9.446239E1,4.4854107E0,1.3367084E2,5.9780506E1,1.6059381E1,2.6905344E0,4.1292137E1,2.570455E1,4.3960873E2,1.0157651E2],"tree_param":{"num_deleted":"0","num_feature":"12","num_nodes":"25","size_leaf_vector":"1"}},{"base_weights":[8.466708E-3,-1.5480448E-1,2.4138497E-1,4.3968487E-1,-7.072292E-1,1.1693081E0,-1.832447E-1,-7.506816E-2,-8.205848E-1,2.4498451E-1,6.269096E-1,-7.2647595E-1,2.400161E-1,-6.8298554E-1,6.700324E-2,-9.7854567E-1,-3.0003458E-1,-4.49776E-2,2.2389245E-1,-1.863374E-1,-5.664432E-2,-1.5979473E-1,8.349751E-2,4.5347467E-2,-9.5360234E-2,-1.11302696E-1,-2.0324984E-1,-1.3289368E-1,9.578082E-3],"categories":[],"categories_nodes":[],"categories_segments":[],"categories_sizes":[],"default_left":[0,0,0,0,0,0,0,0,0,0,0,0,0,0,0,0,0,0,0,0,0,0,0,0,0,0,0,0,0],"id":5,"left_children":[1,3,-1,5,7,9,11,13,15,-1,17,19,-1,21,23,25,27,-1,-1,-1,-1,-1,-1,-1,-1,-1,-1,-1,-1],"loss_changes":[2.3620688E2,3.4923282E2,0E0,2.3308441E2,3.942926E1,6.3543396E0,2.0921826E2,7.3779016E0,3.812271E1,0E0,1.03236E1,1.7900894E1,0E0,2.3976612E0,6.1645756E0,5.130829E0,1.4005829E1,0E0,0E0,0E0,0E0,0E0,0E0,0E0,0E0,0E0,0E0,0E0,0E0],"parents":[2147483647,0,0,1,1,3,3,4,4,5,5,6,6,7,7,8,8,10,10,11,11,13,13,14,14,15,15,16,16],"right_children":[2,4,-1,6,8,10,12,14,16,-1,18,20,-1,22,24,26,28,-1,-1,-1,-1,-1,-1,-1,-1,-1,-1,-1,-1],"split_conditions":[1.3290612E11,2.1468124E7,2.4138497E-1,9.131234E7,1.1821783E8,9.056044E7,4.8100127E10,4.5033464E7,1.2000757E11,2.4498451E-1,4.327468E10,1.72008E6,2.400161E-1,2.030538E6,6.255955E6,1.2319684E8,2.236038E11,-4.49776E-2,2.2389245E-1,-1.863374E-1,-5.664432E-2,-1.5979473E-1,8.349751E-2,4.5347467E-2,-9.5360234E-2,-1.11302696E-1,-2.0324984E-1,-1.3289368E-1,9.578082E-3],"split_indices":[2,1,0,5,10,5,2,1,2,0,2,11,0,11,9,10,3,0,0,0,0,0,0,0,0,0,0,0,0],"split_type":[0,0,0,0,0,0,0,0,0,0,0,0,0,0,0,0,0,0,0,0,0,0,0,0,0,0,0,0,0],"sum_hessian":[1.2051921E3,1.0614562E3,1.4373598E2,5.113612E2,5.500949E2,2.3510773E2,2.7625345E2,8.389449E1,4.6620044E2,2.1210172E2,2.3006014E1,1.986992E2,7.755426E1,1.517102E1,6.872347E1,3.5699155E2,1.09208885E2,8.62821E0,1.4377803E1,1.3506638E2,6.363283E1,1.397233E1,1.1986892E0,5.3570904E1,1.5152568E1,3.0569822E1,3.2642172E2,5.2894634E1,5.6314255E1],"tree_param":{"num_deleted":"0","num_feature":"12","num_nodes":"29","size_leaf_vector":"1"}},{"base_weights":[1.0213243E-2,-1.36975E-1,2.319279E-1,4.5948514E-1,-5.870965E-1,-5.9426915E-2,2.326263E-1,-1.1836731E0,-4.8974574E-1,1.10455E0,-5.8101314E-1,-2.3963504E-1,-2.19799E-2,1.442434E0,-5.6269944E-1,2.2841191E-1,-8.3984755E-2,-1.475513E-1,1.9386964E-2,3.8069087E-1,2.186979E-1,-7.579451E-3,-1.3389286E-1],"categories":[],"categories_nodes":[],"categories_segments":[],"categories_sizes":[],"default_left":[0,0,0,0,0,0,0,0,0,0,0,0,0,0,0,0,0,0,0,0,0,0,0],"id":6,"left_children":[1,3,-1,5,7,9,-1,11,13,15,17,-1,-1,19,21,-1,-1,-1,-1,-1,-1,-1,-1],"loss_changes":[1.8332439E2,2.5818414E2,0E0,1.5113223E2,3.1242233E1,1.4578514E2,0E0,1.0543137E0,6.7452065E1,4.729576E0,1.7684464E1,0E0,0E0,7.3082733E-1,2.5540253E1,0E0,0E0,0E0,0E0,0E0,0E0,0E0,0E0],"parents":[2147483647,0,0,1,1,3,3,4,4,5,5,7,7,8,8,9,9,10,10,13,13,14,14],"right_children":[2,4,-1,6,8,10,-1,12,14,16,18,-1,-1,20,22,-1,-1,-1,-1,-1,-1,-1,-1],"split_conditions":[1.3290612E11,1.1065642E7,2.319279E-1,1.084385E10,5.862724E6,8.792175E9,2.326263E-1,1.1292585E10,4.1100064E7,8.874927E9,1.742674E6,-2.3963504E-1,-2.19799E-2,4.1672974E10,1.1747158E8,2.2841191E-1,-8.3984755E-2,-1.475513E-1,1.9386964E-2,3.8069087E-1,2.186979E-1,-7.579451E-3,-1.3389286E-1],"split_indices":[2,1,0,6,9,6,0,10,1,10,11,0,0,2,10,0,0,0,0,0,0,0,0],"split_type":[0,0,0,0,0,0,0,0,0,0,0,0,0,0,0,0,0,0,0,0,0,0,0],"sum_hessian":[1.0816538E3,9.5964813E2,1.2200564E2,4.1272357E2,5.4692456E2,2.3807095E2,1.7465262E2,7.516236E1,4.717622E2,7.332361E1,1.6474734E2,7.404646E1,1.1158963E0,1.6481361E1,4.5528085E2,7.180764E1,1.5159702E0,1.3373845E2,3.1008894E1,5.1811757E0,1.1300185E1,7.719316E1,3.7808768E2],"tree_param":{"num_deleted":"0","num_feature":"12","num_nodes":"23","size_leaf_vector":"1"}},{"base_weights":[1.2803541E-2,-1.1931286E-1,2.246416E-1,4.3266547E-1,-5.083093E-1,-4.3805573E-2,2.2537926E-1,-1.1373758E0,-4.1276234E-1,2.2262836E-1,-4.690561E-1,-2.3067164E-1,-1.973602E-2,2.6468265E-1,-4.821549E-1,-1.4344601E-1,-2.5266884E-3,-9.344112E-3,-1.1901857E-1],"categories":[],"categories_nodes":[],"categories_segments":[],"categories_sizes":[],"default_left":[0,0,0,0,0,0,0,0,0,0,0,0,0,0,0,0,0,0,0],"id":7,"left_children":[1,3,-1,5,7,9,-1,11,13,-1,15,-1,-1,-1,17,-1,-1,-1,-1],"loss_changes":[1.4323756E2,1.8759328E2,0E0,1.1955764E2,3.0326065E1,1.0640373E2,0E0,9.9825287E-1,5.441559E1,0E0,1.789598E1,0E0,0E0,0E0,2.1115715E1,0E0,0E0,0E0,0E0],"parents":[2147483647,0,0,1,1,3,3,4,4,5,5,7,7,8,8,10,10,14,14],"right_children":[2,4,-1,6,8,10,-1,12,14,-1,16,-1,-1,-1,18,-1,-1,-1,-1],"split_conditions":[1.3290612E11,1.0913077E7,2.246416E-1,1.084385E10,5.862724E6,7.5950234E9,2.2537926E-1,1.1292585E10,4.1100064E7,2.2262836E-1,1.72008E6,-2.3067164E-1,-1.973602E-2,2.6468265E-1,1.817485E7,-1.4344601E-1,-2.5266884E-3,-9.344112E-3,-1.1901857E-1],"split_indices":[2,1,0,6,9,4,0,10,1,0,11,0,0,0,7,0,0,0,0],"split_type":[0,0,0,0,0,0,0,0,0,0,0,0,0,0,0,0,0,0,0],"sum_hessian":[9.744668E2,8.7165E2,1.0281674E2,3.6029138E2,5.1135864E2,2.1420981E2,1.4608159E2,6.598958E1,4.4536905E2,5.7138836E1,1.5707097E2,6.4880875E1,1.1087102E0,1.6422129E1,4.2894693E2,1.0137708E2,5.569389E1,8.8633286E1,3.4031366E2],"tree_param":{"num_deleted":"0","num_feature":"12","num_nodes":"19","size_leaf_vector":"1"}},{"base_weights":[1.4980697E-2,-1.0321849E-1,2.1888928E-1,4.131779E-1,-4.365865E-1,-1.896738E-2,2.1967259E-1,-1.1090661E0,-3.401924E-1,1.0039754E0,-4.1244593E-1,-2.253E-1,-9.56917E-3,2.4612263E-1,-4.1030893E-1,4.755188E-2,2.2433977E-1,-1.2509292E-1,-8.066494E-3,-9.8214276E-2,4.2151876E-2],"categories":[],"categories_nodes":[],"categories_segments":[],"categories_sizes":[],"default_left":[0,0,0,0,0,0,0,0,0,0,0,0,0,0,0,0,0,0,0,0,0],"id":8,"left_children":[1,3,-1,5,7,9,-1,11,13,15,17,-1,-1,-1,19,-1,-1,-1,-1,-1,-1],"loss_changes":[1.12715034E2,1.372693E2,0E0,9.267647E1,3.102385E1,7.8048096E1,0E0,1.0615005E0,4.7327915E1,4.592636E0,1.107255E1,0E0,0E0,0E0,2.0553764E1,0E0,0E0,0E0,0E0,0E0,0E0],"parents":[2147483647,0,0,1,1,3,3,4,4,5,5,7,7,8,8,9,9,10,10,14,14],"right_children":[2,4,-1,6,8,10,-1,12,14,16,18,-1,-1,-1,20,-1,-1,-1,-1,-1,-1],"split_conditions":[1.3290612E11,1.0643984E7,2.1888928E-1,1.084385E10,5.862724E6,4.2735452E10,2.1967259E-1,7.926495E10,4.1100064E7,1.727272E6,1.72008E6,-2.253E-1,-9.56917E-3,2.4612263E-1,2.245389E11,4.755188E-2,2.2433977E-1,-1.2509292E-1,-8.066494E-3,-9.8214276E-2,4.2151876E-2],"split_indices":[2,1,0,6,9,2,0,3,1,11,11,0,0,0,3,0,0,0,0,0,0],"split_type":[0,0,0,0,0,0,0,0,0,0,0,0,0,0,0,0,0,0,0,0,0],"sum_hessian":[8.8151685E2,7.9533386E2,8.6182976E1,3.1192062E2,4.8341324E2,1.9187662E2,1.20044014E2,5.9288677E1,4.2412457E2,5.2871864E1,1.3900476E2,5.8269905E1,1.0187746E0,1.7415607E1,4.0670895E2,7.4436564E0,4.5428207E1,8.7966774E1,5.1037983E1,3.600926E2,4.6616375E1],"tree_param":{"num_deleted":"0","num_feature":"12","num_nodes":"21","size_leaf_vector":"1"}},{"base_weights":[1.6981937E-2,-8.808204E-2,2.1423888E-1,3.822443E-1,-3.7574163E-1,-1.3546497E-2,2.1512027E-1,-1.0747526E0,-2.8678015E-1,8.6733395E-1,-3.9873415E-1,-2.1911006E-1,-3.856763E-3,1.0169472E0,-3.562004E-1,2.0301585E-1,-2.2345934E-2,-1.05855964E-1,4.6904884E-2,4.8466623E-2,2.0909269E-1,-9.457179E-2,9.359176E-3],"categories":[],"categories_nodes":[],"categories_segments":[],"categories_sizes":[],"default_left":[0,0,0,0,0,0,0,0,0,0,0,0,0,0,0,0,0,0,0,0,0,0,0],"id":9,"left_children":[1,3,-1,5,7,9,-1,11,13,15,17,-1,-1,19,21,-1,-1,-1,-1,-1,-1,-1,-1],"loss_changes":[8.9157906E1,9.920077E1,0E0,7.640204E1,2.7974007E1,6.080645E1,0E0,1.0980301E0,3.7000862E1,8.000896E0,1.0429886E1,0E0,0E0,2.0445633E-1,1.8126747E1,0E0,0E0,0E0,0E0,0E0,0E0,0E0,0E0],"parents":[2147483647,0,0,1,1,3,3,4,4,5,5,7,7,8,8,9,9,10,10,13,13,14,14],"right_children":[2,4,-1,6,8,10,-1,12,14,16,18,-1,-1,20,22,-1,-1,-1,-1,-1,-1,-1,-1],"split_conditions":[1.3290612E11,1.0643984E7,2.1423888E-1,1.084385E10,5.862724E6,7.7064387E9,2.1512027E-1,1.1292585E10,1.911219E6,1.4526061E9,1.751055E6,-2.1911006E-1,-3.856763E-3,2.6490084E9,1.20198275E11,2.0301585E-1,-2.2345934E-2,-1.05855964E-1,4.6904884E-2,4.8466623E-2,2.0909269E-1,-9.457179E-2,9.359176E-3],"split_indices":[2,1,0,6,9,4,0,10,11,7,11,0,0,2,2,0,0,0,0,0,0,0,0],"split_type":[0,0,0,0,0,0,0,0,0,0,0,0,0,0,0,0,0,0,0,0,0,0,0],"sum_hessian":[8.031148E2,7.311628E2,7.195204E1,2.773553E2,4.538075E2,1.7718996E2,1.0016534E2,4.998347E1,4.0382404E2,5.352732E1,1.2366263E2,4.898035E1,1.0031204E0,1.9725512E1,3.840985E2,4.6476948E1,7.0503736E0,1.0266295E2,2.0999681E1,1.0376265E0,1.8687885E1,2.9773688E2,8.6361626E1],"tree_param":{"num_deleted":"0","num_feature":"12","num_nodes":"23","size_leaf_vector":"1"}},{"base_weights":[1.8200845E-2,-7.472136E-2,2.103837E-1,1.0169446E0,-1.7557827E-1,1.38053745E-2,2.0937316E-1,9.554769E-1,-2.509151E-1,-1.3738811E-1,2.0811665E-1,-1.9104674E-2,-3.8419023E-1,-3.1820647E-2,2.0562385E-1,-1.0433139E-1,4.4325027E-3],"categories":[],"categories_nodes":[],"categories_segments":[],"categories_sizes":[],"default_left":[0,0,0,0,0,0,0,0,0,0,0,0,0,0,0,0,0],"id":10,"left_children":[1,3,-1,5,7,-1,-1,9,11,-1,-1,13,15,-1,-1,-1,-1],"loss_changes":[7.0919495E1,7.478454E1,0E0,1.5573349E0,5.3168198E1,0E0,0E0,6.165928E0,1.800896E1,0E0,0E0,3.1528378E1,2.0692066E1,0E0,0E0,0E0,0E0],"parents":[2147483647,0,0,1,1,3,3,4,4,7,7,8,8,11,11,12,12],"right_children":[2,4,-1,6,8,-1,-1,10,12,-1,-1,14,16,-1,-1,-1,-1],"split_conditions":[1.3290612E11,1.1690538E8,2.103837E-1,2.6652165E9,1.600909E6,1.38053745E-2,2.0937316E-1,4.6120088E10,1.956378E6,-1.3738811E-1,2.0811665E-1,1.084385E10,1.2000757E11,-3.1820647E-2,2.0562385E-1,-1.0433139E-1,4.4325027E-3],"split_indices":[2,0,0,2,11,0,0,2,11,0,0,6,2,0,0,0,0],"split_type":[0,0,0,0,0,0,0,0,0,0,0,0,0,0,0,0,0],"sum_hessian":[7.36501E2,6.7660754E2,5.98934E1,5.6455482E1,6.201521E2,1.8286871E0,5.4626797E1,3.7997738E1,5.8215436E2,1.5235765E0,3.6474163E1,2.1293382E2,3.6922052E2,1.885725E2,2.4361322E1,2.756769E2,9.354361E1],"tree_param":{"num_deleted":"0","num_feature":"12","num_nodes":"17","size_leaf_vector":"1"}},{"base_weights":[1.957647E-2,-6.1269067E-2,2.0709701E-1,9.8878974E-1,-1.4737017E-1,2.0673709E-1,1.8341559E-1,9.3273324E-1,-2.1036369E-1,1.5349565E-1,-1.3032484E-1,-1.2952103E-1,2.0448914E-1,2.3649518E-1,-2.8151092E-1,-6.628416E-2,7.044708E-2,-1.4948554E-1,-3.243963E-2],"categories":[],"categories_nodes":[],"categories_segments":[],"categories_sizes":[],"default_left":[0,0,0,0,0,0,0,0,0,0,0,0,0,0,0,0,0,0,0],"id":11,"left_children":[1,3,-1,5,7,-1,9,11,13,-1,-1,-1,-1,15,17,-1,-1,-1,-1],"loss_changes":[5.6545742E1,5.7824036E1,0E0,1.563179E0,4.0372154E1,0E0,2.3413851E0,5.3016224E0,1.783097E1,0E0,0E0,0E0,0E0,5.196904E0,2.6699085E1,0E0,0E0,0E0,0E0],"parents":[2147483647,0,0,1,1,3,3,4,4,6,6,7,7,8,8,13,13,14,14],"right_children":[2,4,-1,6,8,-1,10,12,14,-1,-1,-1,-1,16,18,-1,-1,-1,-1],"split_conditions":[1.3290612E11,1.1690538E8,2.0709701E-1,1.1515918E7,1.600909E6,2.0673709E-1,4.0787242E8,4.6120088E10,1.1821783E8,1.5349565E-1,-1.3032484E-1,-1.2952103E-1,2.0448914E-1,4.5033464E7,2.198009E10,-6.628416E-2,7.044708E-2,-1.4948554E-1,-3.243963E-2],"split_indices":[2,0,0,1,11,0,3,2,10,0,0,0,0,1,2,0,0,0,0],"split_type":[0,0,0,0,0,0,0,0,0,0,0,0,0,0,0,0,0,0,0],"sum_hessian":[6.8670416E2,6.369552E2,4.9748913E1,4.7475586E1,5.894796E2,4.4700275E1,2.7753105E0,3.1724037E1,5.577556E2,1.6806796E0,1.0946311E0,1.3701063E0,3.0353931E1,7.6287575E1,4.8146802E2,1.2599693E1,6.368788E1,9.708528E1,3.8438275E2],"tree_param":{"num_deleted":"0","num_feature":"12","num_nodes":"19","size_leaf_vector":"1"}},{"base_weights":[1.9042091E-2,-5.0519828E-2,2.0420456E-1,9.647835E-1,-1.2323009E-1,-1.6699268E-2,1.001381E0,9.109069E-1,-1.7534411E-1,2.0347178E-1,4.026242E-2,-1.2222902E-1,2.0117772E-1,2.3437819E-1,-2.4245797E-1,-2.0471737E-2,1.2445809E-1,-1.3506822E-1,-2.7693404E-2],"categories":[],"categories_nodes":[],"categories_segments":[],"categories_sizes":[],"default_left":[0,0,0,0,0,0,0,0,0,0,0,0,0,0,0,0,0,0,0],"id":12,"left_children":[1,3,-1,5,7,-1,9,11,13,-1,-1,-1,-1,15,17,-1,-1,-1,-1],"loss_changes":[4.5375694E1,4.5078213E1,0E0,1.6493797E0,3.0835773E1,0E0,3.003006E-1,4.585926E0,1.4980928E1,0E0,0E0,0E0,0E0,1.0108347E1,2.0921535E1,0E0,0E0,0E0,0E0],"parents":[2147483647,0,0,1,1,3,3,4,4,6,6,7,7,8,8,13,13,14,14],"right_children":[2,4,-1,6,8,-1,10,12,14,-1,-1,-1,-1,16,18,-1,-1,-1,-1],"split_conditions":[1.3290612E11,1.1690538E8,2.0420456E-1,2.6592343E9,1.600909E6,-1.6699268E-2,4.421653E7,4.6120088E10,9.866181E6,2.0347178E-1,4.026242E-2,-1.2222902E-1,2.0117772E-1,2.6532157E9,2.198009E10,-2.0471737E-2,1.2445809E-1,-1.3506822E-1,-2.7693404E-2],"split_indices":[2,0,0,2,11,0,1,2,5,0,0,0,0,2,2,0,0,0,0],"split_type":[0,0,0,0,0,0,0,0,0,0,0,0,0,0,0,0,0,0,0],"sum_hessian":[6.492769E2,6.080154E2,4.1261528E1,3.9812817E1,5.682026E2,1.2998264E0,3.851299E1,2.6469503E1,5.417331E2,3.749265E1,1.0203418E0,1.2355672E0,2.5233936E1,7.589722E1,4.6583585E2,4.102263E1,3.4874584E1,8.916685E1,3.76669E2],"tree_param":{"num_deleted":"0","num_feature":"12","num_nodes":"19","size_leaf_vector":"1"}},{"base_weights":[1.8580109E-2,-4.090376E-2,2.0156756E-1,9.383991E-1,-1.0205436E-1,2.0100942E-1,1.24075785E-1,8.8929427E-1,-1.4504713E-1,1.2851134E-1,-1.2520054E-1,-1.1545204E-1,1.9803844E-1,1.748081E-1,-2.0873867E-1,2.5351632E-2,3.9803052E-1,-1.5184917E-1,-2.1362629E-2],"categories":[],"categories_nodes":[],"categories_segments":[],"categories_sizes":[],"default_left":[0,0,0,0,0,0,0,0,0,0,0,0,0,0,0,0,0,0,0],"id":13,"left_children":[1,3,-1,5,7,-1,9,11,13,-1,-1,-1,-1,15,17,-1,-1,-1,-1],"loss_changes":[3.6510456E1,3.5162067E1,0E0,1.7484379E0,2.3657726E1,0E0,1.8613482E0,3.987732E0,1.0832905E1,0E0,0E0,0E0,0E0,7.4716425E0,2.474298E1,0E0,0E0,0E0,0E0],"parents":[2147483647,0,0,1,1,3,3,4,4,6,6,7,7,8,8,13,13,14,14],"right_children":[2,4,-1,6,8,-1,10,12,14,-1,-1,-1,-1,16,18,-1,-1,-1,-1],"split_conditions":[1.3290612E11,1.1690538E8,2.0156756E-1,1.1515918E7,1.600909E6,2.0100942E-1,4.0787242E8,4.6120088E10,1.2121708E8,1.2851134E-1,-1.2520054E-1,-1.1545204E-1,1.9803844E-1,2.042329E6,2.198009E10,2.5351632E-2,3.9803052E-1,-1.5184917E-1,-2.1362629E-2],"split_indices":[2,0,0,1,11,0,3,2,10,0,0,0,0,11,2,0,0,0,0],"split_type":[0,0,0,0,0,0,0,0,0,0,0,0,0,0,0,0,0,0,0],"sum_hessian":[6.187521E2,5.8456116E2,3.4190895E1,3.351329E1,5.510479E2,3.0761423E1,2.751867E0,2.20863E1,5.289616E2,1.7118932E0,1.039974E0,1.1178005E0,2.0968498E1,8.754934E1,4.4141226E2,8.6334015E1,1.2153293E0,6.795163E1,3.7346063E2],"tree_param":{"num_deleted":"0","num_feature":"12","num_nodes":"19","size_leaf_vector":"1"}},{"base_weights":[1.8054238E-2,-3.264461E-2,1.990712E-1,1.9801275E-1,-8.0346934E-2,9.241425E-1,-1.13591135E-1,3.9336544E-2,1.9340825E-1,-8.625819E-2,-8.7533784E-1,-2.8088171E-2,1.7056149E-1,-2.423418E-1,2.2980101E-2],"categories":[],"categories_nodes":[],"categories_segments":[],"categories_sizes":[],"default_left":[0,0,0,0,0,0,0,0,0,0,0,0,0,0,0],"id":14,"left_children":[1,3,-1,-1,5,7,9,-1,-1,11,13,-1,-1,-1,-1],"loss_changes":[2.945743E1,2.7670055E1,0E0,0E0,1.8179783E1,3.543377E-1,1.0851637E1,0E0,0E0,2.595459E1,6.158087E0,0E0,0E0,0E0,0E0],"parents":[2147483647,0,0,1,1,4,4,5,5,6,6,9,9,10,10],"right_children":[2,4,-1,-1,6,8,10,-1,-1,12,14,-1,-1,-1,-1],"split_conditions":[1.3290612E11,1.1457646E8,1.990712E-1,1.9801275E-1,1.592413E6,6.1400863E10,3.980167E10,3.9336544E-2,1.9340825E-1,2.2477991E11,2.271069E11,-2.8088171E-2,1.7056149E-1,-2.423418E-1,2.2980101E-2],"split_indices":[2,0,0,0,11,2,6,0,0,3,3,0,0,0,0],"split_type":[0,0,0,0,0,0,0,0,0,0,0,0,0,0,0],"sum_hessian":[5.9286646E2,5.6454645E2,2.8320013E1,2.4278358E1,5.4026807E2,1.6449196E1,5.238189E2,1.2270027E0,1.5222194E1,5.06749E2,1.70699E1,4.799094E2,2.6839602E1,1.2574762E1,4.495138E0],"tree_param":{"num_deleted":"0","num_feature":"12","num_nodes":"15","size_leaf_vector":"1"}},{"base_weights":[1.7272204E-2,-3.1191131E-2,8.96161E-1,2.7287883E-1,-1.8501559E-1,2.150727E-1,-2.8636628E-1,2.650273E-2,2.0407918E-1,-1.0217292E0,-9.234975E-2,-1.7565346E-1,1.2224062E-1,6.395369E-1,-3.092202E-1,-2.1077633E-1,3.3025702E-3,2.4515212E-1,-1.4165956E-1,1.2513108E-2,1.9639622E-1,-9.107403E-2,4.333289E-2,3.834115E-2,-5.468778E-2],"categories":[],"categories_nodes":[],"categories_segments":[],"categories_sizes":[],"default_left":[0,0,0,0,0,0,0,0,0,0,0,0,0,0,0,0,0,0,0,0,0,0,0,0,0],"id":15,"left_children":[1,3,5,7,9,-1,11,13,-1,15,17,-1,-1,19,21,-1,-1,-1,23,-1,-1,-1,-1,-1,-1],"loss_changes":[2.4523369E1,2.558897E1,6.683935E0,3.3828636E1,2.8064436E1,0E0,3.0599437E0,2.8864079E1,0E0,1.2228928E0,2.1496439E1,0E0,0E0,9.741104E0,7.067588E0,0E0,0E0,0E0,1.3984179E1,0E0,0E0,0E0,0E0,0E0,0E0],"parents":[2147483647,0,0,1,1,2,2,3,3,4,4,6,6,7,7,9,9,10,10,13,13,14,14,18,18],"right_children":[2,4,6,8,10,-1,12,14,-1,16,18,-1,-1,20,22,-1,-1,-1,24,-1,-1,-1,-1,-1,-1],"split_conditions":[1.2414503E11,1.0390123E7,6.8471475E8,1.084385E10,5.862724E6,2.150727E-1,1.3290612E11,7.735339E9,2.0407918E-1,1.1266008E10,4.1100064E7,-1.7565346E-1,1.2224062E-1,1.709944E6,4.329225E10,-2.1077633E-1,3.3025702E-3,2.4515212E-1,1.834204E7,1.2513108E-2,1.9639622E-1,-9.107403E-2,4.333289E-2,3.834115E-2,-5.468778E-2],"split_indices":[2,1,1,6,9,0,2,4,0,10,1,0,0,11,2,0,0,0,7,0,0,0,0,0,0],"split_type":[0,0,0,0,0,0,0,0,0,0,0,0,0,0,0,0,0,0,0,0,0,0,0,0,0],"sum_hessian":[5.7409235E2,5.4500446E2,2.908791E1,1.8282808E2,3.621764E2,2.533866E1,3.749249E0,1.3828561E2,4.4542465E1,3.5111935E1,3.2706445E2,2.2722929E0,1.476956E0,4.8612907E1,8.9672714E1,3.4042633E1,1.0693012E0,1.0933751E1,3.161307E2,1.85468E1,3.0066107E1,7.027617E1,1.9396542E1,8.943362E1,2.2669708E2],"tree_param":{"num_deleted":"0","num_feature":"12","num_nodes":"25","size_leaf_vector":"1"}},{"base_weights":[1.670464E-2,-2.5270747E-2,8.71765E-1,1.9496198E-1,-1.8425174E-1,2.1124728E-1,-2.644216E-1,6.611878E-3,2.0202713E-1,-3.0295148E-1,2.6825133E-1,-1.6409858E-1,1.1609992E-1,4.6886387E-1,-3.644832E-1,-1.0915036E-1,-6.2811714E-1,1.4339774E0,-1.3264461E-1,1.0417464E-1,-1.12895586E-1,-4.0293686E-2,-1.9514875E-1,-4.784895E-2,4.709978E-1,-1.6214071E-1,2.61963E-2,6.846244E-2,4.0266314E-1,-1.1492888E-1,8.18958E-2],"categories":[],"categories_nodes":[],"categories_segments":[],"categories_sizes":[],"default_left":[0,0,0,0,0,0,0,0,0,0,0,0,0,0,0,0,0,0,0,0,0,0,0,0,0,0,0,0,0,0,0],"id":16,"left_children":[1,3,5,7,9,-1,11,13,-1,15,17,-1,-1,19,21,23,25,27,29,-1,-1,-1,-1,-1,-1,-1,-1,-1,-1,-1,-1],"loss_changes":[1.9525427E1,1.820559E1,5.614645E0,3.3471813E1,1.6296728E1,0E0,2.522652E0,3.072696E1,0E0,1.50323105E1,2.9756824E1,0E0,0E0,4.580555E0,9.705025E0,4.9082985E1,1.2479973E1,9.603489E0,1.1735079E1,0E0,0E0,0E0,0E0,0E0,0E0,0E0,0E0,0E0,0E0,0E0,0E0],"parents":[2147483647,0,0,1,1,2,2,3,3,4,4,6,6,7,7,9,9,10,10,13,13,14,14,15,15,16,16,17,17,18,18],"right_children":[2,4,6,8,10,-1,12,14,-1,16,18,-1,-1,20,22,24,26,28,30,-1,-1,-1,-1,-1,-1,-1,-1,-1,-1,-1,-1],"split_conditions":[1.2414503E11,1.956378E6,6.8471475E8,1.084385E10,2.2323198E11,2.1124728E-1,1.3290612E11,7.735339E9,2.0202713E-1,1.1695366E11,2.7243475E10,-1.6409858E-1,1.1609992E-1,8.984038E9,5.47687E5,9.662289E6,4.8069565E9,4.2800335E9,2.2553834E11,1.0417464E-1,-1.12895586E-1,-4.0293686E-2,-1.9514875E-1,-4.784895E-2,4.709978E-1,-1.6214071E-1,2.61963E-2,6.846244E-2,4.0266314E-1,-1.1492888E-1,8.18958E-2],"split_indices":[2,11,1,6,3,0,2,4,0,2,4,0,0,10,9,11,0,0,3,0,0,0,0,0,0,0,0,0,0,0,0],"split_type":[0,0,0,0,0,0,0,0,0,0,0,0,0,0,0,0,0,0,0,0,0,0,0,0,0,0,0,0,0,0,0],"sum_hessian":[5.423989E2,5.1794324E2,2.4455675E1,2.1704688E2,3.008964E2,2.110021E1,3.3554654E0,1.7712852E2,3.991835E1,2.3862993E2,6.226646E1,2.0410762E0,1.3143892E0,7.875921E1,9.8369316E1,1.5035368E2,8.827624E1,1.527445E1,4.699201E1,7.545728E1,3.301924E0,7.870845E1,1.9660866E1,1.4367145E2,6.6822343E0,7.110527E1,1.7170969E1,5.8472204E0,9.42723E0,2.5853422E1,2.1138588E1],"tree_param":{"num_deleted":"0","num_feature":"12","num_nodes":"31","size_leaf_vector":"1"}},{"base_weights":[1.4348732E-2,-2.1908171E-2,8.46499E-1,1.9038369E-1,-5.302845E-2,2.0719974E-1,-2.4418154E-1,-3.0312166E-2,-8.553166E-1,-1.538196E-1,1.1021508E-1,-6.4339794E-2,9.3803215E-1,-2.2269836E-1,8.683956E-2,-5.0475798E-3,-1.5582128E-1,-1.562563E-1,2.3178001E-1,1.9930743E-1,-1.5800874E-1],"categories":[],"categories_nodes":[],"categories_segments":[],"categories_sizes":[],"default_left":[0,0,0,0,0,0,0,0,0,0,0,0,0,0,0,0,0,0,0,0,0],"id":17,"left_children":[1,3,5,-1,7,-1,9,11,13,-1,-1,15,17,-1,19,-1,-1,-1,-1,-1,-1],"loss_changes":[1.5612366E1,1.5089427E1,4.718171E0,0E0,8.7552595E0,0E0,2.096616E0,1.5533583E1,3.3147945E0,0E0,0E0,1.2685417E1,6.983349E0,0E0,3.7972353E0,0E0,0E0,0E0,0E0,0E0,0E0],"parents":[2147483647,0,0,1,1,2,2,4,4,6,6,7,7,8,8,11,11,12,12,14,14],"right_children":[2,4,6,-1,8,-1,10,12,14,-1,-1,16,18,-1,20,-1,-1,-1,-1,-1,-1],"split_conditions":[1.2414503E11,1.1457646E8,6.8471475E8,1.9038369E-1,3.980167E10,2.0719974E-1,1.3290612E11,2.2553834E11,2.271069E11,-1.538196E-1,1.1021508E-1,2.7336436E10,3.86917E10,-2.2269836E-1,2.794739E10,-5.0475798E-3,-1.5582128E-1,-1.562563E-1,2.3178001E-1,1.9930743E-1,-1.5800874E-1],"split_indices":[2,0,1,0,6,0,2,3,3,0,0,4,10,0,4,0,0,0,0,0,0],"split_type":[0,0,0,0,0,0,0,0,0,0,0,0,0,0,0,0,0,0,0,0,0],"sum_hessian":[5.158447E2,4.952407E2,2.0604033E1,1.4419895E1,4.808208E2,1.7596819E1,3.007213E0,4.6859073E2,1.2230068E1,1.8313246E0,1.1758885E0,4.535853E2,1.5005433E1,9.456804E0,2.7732637E0,4.310402E2,2.25451E1,1.4193537E0,1.3586079E1,1.2941897E0,1.479074E0],"tree_param":{"num_deleted":"0","num_feature":"12","num_nodes":"21","size_leaf_vector":"1"}},{"base_weights":[1.2234513E-2,-1.8164782E-2,8.2045376E-1,8.5711473E-1,-4.813344E-2,2.0295787E-1,-2.2542232E-1,2.8454429E-2,9.7579414E-1,1.55636E-1,-1.4104769E-1,-1.4452855E-1,1.046075E-1,-3.5929903E-2,4.3435656E-2,2.0643322E-1,3.7571553E-2,-7.286209E-3,1.9809966E-1,-9.795499E-1,-6.2490493E-2,-4.4621546E-2,1.0587819E-1,-2.0411973E-1,1.0246848E-2,2.3769377E-1,-2.0537669E-2],"categories":[],"categories_nodes":[],"categories_segments":[],"categories_sizes":[],"default_left":[0,0,0,0,0,0,0,0,0,0,0,0,0,0,0,0,0,0,0,0,0,0,0,0,0,0,0],"id":18,"left_children":[1,3,5,7,9,-1,11,13,15,17,19,-1,-1,-1,-1,-1,-1,21,-1,23,25,-1,-1,-1,-1,-1,-1],"loss_changes":[1.2470133E1,1.2882485E1,3.9681578E0,1.5713005E0,9.001634E0,0E0,1.755338E0,1.5947007E-1,4.3650723E-1,2.0275227E1,2.1430643E1,0E0,0E0,0E0,0E0,0E0,0E0,1.4674248E1,0E0,1.2320118E0,1.5177315E1,0E0,0E0,0E0,0E0,0E0,0E0],"parents":[2147483647,0,0,1,1,2,2,3,3,4,4,6,6,7,7,8,8,9,9,10,10,17,17,19,19,20,20],"right_children":[2,4,6,8,10,-1,12,14,16,18,20,-1,-1,-1,-1,-1,-1,22,-1,24,26,-1,-1,-1,-1,-1,-1],"split_conditions":[1.2414503E11,8.509165E6,6.8471475E8,1.71724E7,1.0390123E7,2.0295787E-1,1.3290612E11,4.0459402E8,6.055724E6,1.084385E10,5.862724E6,-1.4452855E-1,1.046075E-1,-3.5929903E-2,4.3435656E-2,2.0643322E-1,3.7571553E-2,1.742674E6,1.9809966E-1,1.119972E10,4.1100064E7,-4.4621546E-2,1.0587819E-1,-2.0411973E-1,1.0246848E-2,2.3769377E-1,-2.0537669E-2],"split_indices":[2,8,1,7,1,0,2,3,9,6,9,0,0,0,0,0,0,11,0,6,1,0,0,0,0,0,0],"split_type":[0,0,0,0,0,0,0,0,0,0,0,0,0,0,0,0,0,0,0,0,0,0,0,0,0,0,0],"sum_hessian":[5.0594287E2,4.8854492E2,1.7397959E1,1.5259782E1,4.7328513E2,1.4696843E1,2.7011163E0,2.067005E0,1.3192777E1,1.480102E2,3.2527493E2,1.6436756E0,1.0574408E0,1.0058959E0,1.0611092E0,1.2022669E1,1.1701077E0,1.2467192E2,2.333828E1,2.688124E1,2.9839368E2,8.93319E1,3.5340015E1,2.5861254E1,1.0199866E0,8.400615E0,2.8999307E2],"tree_param":{"num_deleted":"0","num_feature":"12","num_nodes":"27","size_leaf_vector":"1"}},{"base_weights":[1.2483468E-2,-1.0028864E-2,1.8503903E-1,8.872853E-1,-3.3372633E-2,-1.983246E-2,1.9827625E-1,2.9755088E-3,-5.0338006E-1,-2.7665721E-2,8.984319E-1,-6.540912E-1,-2.4135973E-2,-1.3755533E-2,8.517087E-2,1.2516235E-2,3.7861833E-1,2.551359E-2,-1.5210558E-1,1.06608965E-1,-1.4805266E-1],"categories":[],"categories_nodes":[],"categories_segments":[],"categories_sizes":[],"default_left":[0,0,0,0,0,0,0,0,0,0,0,0,0,0,0,0,0,0,0,0,0],"id":19,"left_children":[1,3,-1,5,7,-1,-1,9,11,13,15,17,19,-1,-1,-1,-1,-1,-1,-1,-1],"loss_changes":[1.0027624E1,1.0017584E1,0E0,1.3435173E0,7.9574957E0,0E0,0E0,1.1912757E1,2.39919E0,7.858379E0,1.1824467E1,2.2100801E0,4.0006723E0,0E0,0E0,0E0,0E0,0E0,0E0,0E0,0E0],"parents":[2147483647,0,0,1,1,3,3,4,4,7,7,8,8,9,9,10,10,11,11,12,12],"right_children":[2,4,-1,6,8,-1,-1,10,12,14,16,18,20,-1,-1,-1,-1,-1,-1,-1,-1],"split_conditions":[1.3290612E11,8.46718E6,1.8503903E-1,2.6470372E9,1.7399507E8,-1.983246E-2,1.9827625E-1,4.837351E9,1.079796E9,2.245389E11,2.2067434E11,7.419428E8,2.720325E10,-1.3755533E-2,8.517087E-2,1.2516235E-2,3.7861833E-1,2.551359E-2,-1.5210558E-1,1.06608965E-1,-1.4805266E-1],"split_indices":[2,8,0,2,5,0,0,0,8,3,3,8,4,0,0,0,0,0,0,0,0],"split_type":[0,0,0,0,0,0,0,0,0,0,0,0,0,0,0,0,0,0,0,0,0],"sum_hessian":[4.8657556E2,4.7582812E2,1.0747444E1,1.1126477E1,4.6470163E2,1.0665824E0,1.0059895E1,4.3226593E2,3.2435722E1,4.1890085E2,1.3365079E1,2.4398212E1,8.037512E0,3.848612E2,3.403962E1,7.83986E0,5.525219E0,2.9002886E0,2.1497923E1,4.6642003E0,3.3733113E0],"tree_param":{"num_deleted":"0","num_feature":"12","num_nodes":"21","size_leaf_vector":"1"}}]},"name":"gbtree"},"learner_model_param":{"base_score":"5E-1","boost_from_average":"1","num_class":"0","num_feature":"12","num_target":"1"},"objective":{"name":"binary:logistic","reg_loss_param":{"scale_pos_weight":"1"}}},"version":[3,0,0]}